digraph Tree {
node [shape=box, style="rounded", color="black", fontname=helvetica] ;
edge [fontname=helvetica] ;
0 [label="8 <= 0.3\ngini = 0.5\nsamples = 8\nvalue = [10, 6]"] ;
1 [label="18 <= 0.3\ngini = 0.5\nsamples = 6\nvalue = [5, 6]"] ;
0 -> 1 [labeldistance=2.5, labelangle=45, headlabel="True"] ;
2 [label="12 <= 0.3\ngini = 0.4\nsamples = 4\nvalue = [5, 2]"] ;
1 -> 2 ;
3 [label="0 <= 0.7\ngini = 0.5\nsamples = 3\nvalue = [3, 2]"] ;
2 -> 3 ;
4 [label="gini = 0.0\nsamples = 2\nvalue = [3, 0]"] ;
3 -> 4 ;
5 [label="gini = 0.0\nsamples = 1\nvalue = [0, 2]"] ;
3 -> 5 ;
6 [label="gini = 0.0\nsamples = 1\nvalue = [2, 0]"] ;
2 -> 6 ;
7 [label="gini = 0.0\nsamples = 2\nvalue = [0, 4]"] ;
1 -> 7 ;
8 [label="gini = 0.0\nsamples = 2\nvalue = [5, 0]"] ;
0 -> 8 [labeldistance=2.5, labelangle=-45, headlabel="False"] ;
}