digraph Tree {
node [shape=box, style="rounded", color="black", fontname=helvetica] ;
edge [fontname=helvetica] ;
0 [label="8 <= 2.1\ngini = 0.5\nsamples = 8\nvalue = [6, 10]"] ;
1 [label="19 <= 0.4\ngini = 0.4\nsamples = 7\nvalue = [4, 10]"] ;
0 -> 1 [labeldistance=2.5, labelangle=45, headlabel="True"] ;
2 [label="5 <= 0.4\ngini = 0.3\nsamples = 6\nvalue = [2, 10]"] ;
1 -> 2 ;
3 [label="gini = 0.0\nsamples = 5\nvalue = [0, 10]"] ;
2 -> 3 ;
4 [label="gini = 0.0\nsamples = 1\nvalue = [2, 0]"] ;
2 -> 4 ;
5 [label="gini = 0.0\nsamples = 1\nvalue = [2, 0]"] ;
1 -> 5 ;
6 [label="gini = 0.0\nsamples = 1\nvalue = [2, 0]"] ;
0 -> 6 [labeldistance=2.5, labelangle=-45, headlabel="False"] ;
}