digraph Tree {
node [shape=box, style="rounded", color="black", fontname=helvetica] ;
edge [fontname=helvetica] ;
0 [label="24 <= 0.7\ngini = 0.5\nsamples = 8\nvalue = [7, 9]"] ;
1 [label="18 <= 1.7\ngini = 0.4\nsamples = 7\nvalue = [4, 9]"] ;
0 -> 1 [labeldistance=2.5, labelangle=45, headlabel="True"] ;
2 [label="6 <= 0.3\ngini = 0.3\nsamples = 6\nvalue = [2, 9]"] ;
1 -> 2 ;
3 [label="gini = 0.0\nsamples = 4\nvalue = [0, 7]"] ;
2 -> 3 ;
4 [label="21 <= 0.5\ngini = 0.5\nsamples = 2\nvalue = [2, 2]"] ;
2 -> 4 ;
5 [label="gini = 0.0\nsamples = 1\nvalue = [0, 2]"] ;
4 -> 5 ;
6 [label="gini = 0.0\nsamples = 1\nvalue = [2, 0]"] ;
4 -> 6 ;
7 [label="gini = 0.0\nsamples = 1\nvalue = [2, 0]"] ;
1 -> 7 ;
8 [label="gini = 0.0\nsamples = 1\nvalue = [3, 0]"] ;
0 -> 8 [labeldistance=2.5, labelangle=-45, headlabel="False"] ;
}