digraph Tree {
node [shape=box, style="rounded", color="black", fontname=helvetica] ;
edge [fontname=helvetica] ;
0 [label="12 <= 0.3\ngini = 0.3\nsamples = 11\nvalue = [3, 13]"] ;
1 [label="3 <= 0.4\ngini = 0.4\nsamples = 7\nvalue = [3, 6]"] ;
0 -> 1 [labeldistance=2.5, labelangle=45, headlabel="True"] ;
2 [label="22 <= 4.6\ngini = 0.5\nsamples = 5\nvalue = [3, 3]"] ;
1 -> 2 ;
3 [label="5 <= 0.4\ngini = 0.4\nsamples = 4\nvalue = [1, 3]"] ;
2 -> 3 ;
4 [label="gini = 0.0\nsamples = 3\nvalue = [0, 3]"] ;
3 -> 4 ;
5 [label="gini = 0.0\nsamples = 1\nvalue = [1, 0]"] ;
3 -> 5 ;
6 [label="gini = 0.0\nsamples = 1\nvalue = [2, 0]"] ;
2 -> 6 ;
7 [label="gini = 0.0\nsamples = 2\nvalue = [0, 3]"] ;
1 -> 7 ;
8 [label="gini = 0.0\nsamples = 4\nvalue = [0, 7]"] ;
0 -> 8 [labeldistance=2.5, labelangle=-45, headlabel="False"] ;
}