digraph Tree {
node [shape=box, style="rounded", color="black", fontname=helvetica] ;
edge [fontname=helvetica] ;
0 [label="13 <= 1.0\ngini = 0.5\nsamples = 9\nvalue = [7, 9]"] ;
1 [label="20 <= 0.7\ngini = 0.5\nsamples = 8\nvalue = [5, 9]"] ;
0 -> 1 [labeldistance=2.5, labelangle=45, headlabel="True"] ;
2 [label="13 <= 0.2\ngini = 0.4\nsamples = 7\nvalue = [4, 9]"] ;
1 -> 2 ;
3 [label="11 <= 0.7\ngini = 0.5\nsamples = 4\nvalue = [4, 3]"] ;
2 -> 3 ;
4 [label="gini = 0.0\nsamples = 3\nvalue = [4, 0]"] ;
3 -> 4 ;
5 [label="gini = 0.0\nsamples = 1\nvalue = [0, 3]"] ;
3 -> 5 ;
6 [label="gini = 0.0\nsamples = 3\nvalue = [0, 6]"] ;
2 -> 6 ;
7 [label="gini = 0.0\nsamples = 1\nvalue = [1, 0]"] ;
1 -> 7 ;
8 [label="gini = 0.0\nsamples = 1\nvalue = [2, 0]"] ;
0 -> 8 [labeldistance=2.5, labelangle=-45, headlabel="False"] ;
}