digraph Tree {
node [shape=box, style="rounded", color="black", fontname=helvetica] ;
edge [fontname=helvetica] ;
0 [label="20 <= 0.7\ngini = 0.4\nsamples = 11\nvalue = [11, 5]"] ;
1 [label="22 <= 4.6\ngini = 0.5\nsamples = 10\nvalue = [8, 5]"] ;
0 -> 1 [labeldistance=2.5, labelangle=45, headlabel="True"] ;
2 [label="14 <= 0.5\ngini = 0.4\nsamples = 9\nvalue = [8, 3]"] ;
1 -> 2 ;
3 [label="12 <= 1.4\ngini = 0.4\nsamples = 8\nvalue = [6, 3]"] ;
2 -> 3 ;
4 [label="16 <= 1.2\ngini = 0.4\nsamples = 6\nvalue = [5, 2]"] ;
3 -> 4 ;
5 [label="1 <= 1.0\ngini = 0.5\nsamples = 5\nvalue = [3, 2]"] ;
4 -> 5 ;
6 [label="gini = 0.0\nsamples = 3\nvalue = [3, 0]"] ;
5 -> 6 ;
7 [label="gini = 0.0\nsamples = 2\nvalue = [0, 2]"] ;
5 -> 7 ;
8 [label="gini = 0.0\nsamples = 1\nvalue = [2, 0]"] ;
4 -> 8 ;
9 [label="16 <= 1.2\ngini = 0.5\nsamples = 2\nvalue = [1, 1]"] ;
3 -> 9 ;
10 [label="gini = 0.0\nsamples = 1\nvalue = [1, 0]"] ;
9 -> 10 ;
11 [label="gini = 0.0\nsamples = 1\nvalue = [0, 1]"] ;
9 -> 11 ;
12 [label="gini = 0.0\nsamples = 1\nvalue = [2, 0]"] ;
2 -> 12 ;
13 [label="gini = 0.0\nsamples = 1\nvalue = [0, 2]"] ;
1 -> 13 ;
14 [label="gini = 0.0\nsamples = 1\nvalue = [3, 0]"] ;
0 -> 14 [labeldistance=2.5, labelangle=-45, headlabel="False"] ;
}