digraph Tree {
node [shape=box, style="rounded", color="black", fontname=helvetica] ;
edge [fontname=helvetica] ;
0 [label="8 <= 3.9\ngini = 0.5\nsamples = 9\nvalue = [6, 10]"] ;
1 [label="14 <= 2.0\ngini = 0.5\nsamples = 8\nvalue = [6, 7]"] ;
0 -> 1 [labeldistance=2.5, labelangle=45, headlabel="True"] ;
2 [label="8 <= 0.8\ngini = 0.5\nsamples = 7\nvalue = [4, 7]"] ;
1 -> 2 ;
3 [label="13 <= 0.2\ngini = 0.3\nsamples = 6\nvalue = [2, 7]"] ;
2 -> 3 ;
4 [label="6 <= 0.9\ngini = 0.4\nsamples = 4\nvalue = [2, 4]"] ;
3 -> 4 ;
5 [label="5 <= 0.4\ngini = 0.4\nsamples = 3\nvalue = [2, 1]"] ;
4 -> 5 ;
6 [label="gini = 0.0\nsamples = 1\nvalue = [0, 1]"] ;
5 -> 6 ;
7 [label="gini = 0.0\nsamples = 2\nvalue = [2, 0]"] ;
5 -> 7 ;
8 [label="gini = 0.0\nsamples = 1\nvalue = [0, 3]"] ;
4 -> 8 ;
9 [label="gini = 0.0\nsamples = 2\nvalue = [0, 3]"] ;
3 -> 9 ;
10 [label="gini = 0.0\nsamples = 1\nvalue = [2, 0]"] ;
2 -> 10 ;
11 [label="gini = 0.0\nsamples = 1\nvalue = [2, 0]"] ;
1 -> 11 ;
12 [label="gini = 0.0\nsamples = 1\nvalue = [0, 3]"] ;
0 -> 12 [labeldistance=2.5, labelangle=-45, headlabel="False"] ;
}