digraph Tree {
node [shape=box, style="rounded", color="black", fontname=helvetica] ;
edge [fontname=helvetica] ;
0 [label="8 <= 2.4\ngini = 0.4\nsamples = 9\nvalue = [11, 5]"] ;
1 [label="20 <= 0.7\ngini = 0.5\nsamples = 7\nvalue = [6, 5]"] ;
0 -> 1 [labeldistance=2.5, labelangle=45, headlabel="True"] ;
2 [label="16 <= 1.2\ngini = 0.4\nsamples = 6\nvalue = [6, 2]"] ;
1 -> 2 ;
3 [label="23 <= 0.4\ngini = 0.3\nsamples = 4\nvalue = [5, 1]"] ;
2 -> 3 ;
4 [label="8 <= 0.8\ngini = 0.5\nsamples = 2\nvalue = [1, 1]"] ;
3 -> 4 ;
5 [label="gini = 0.0\nsamples = 1\nvalue = [1, 0]"] ;
4 -> 5 ;
6 [label="gini = 0.0\nsamples = 1\nvalue = [0, 1]"] ;
4 -> 6 ;
7 [label="gini = 0.0\nsamples = 2\nvalue = [4, 0]"] ;
3 -> 7 ;
8 [label="1 <= 0.3\ngini = 0.5\nsamples = 2\nvalue = [1, 1]"] ;
2 -> 8 ;
9 [label="gini = 0.0\nsamples = 1\nvalue = [0, 1]"] ;
8 -> 9 ;
10 [label="gini = 0.0\nsamples = 1\nvalue = [1, 0]"] ;
8 -> 10 ;
11 [label="gini = 0.0\nsamples = 1\nvalue = [0, 3]"] ;
1 -> 11 ;
12 [label="gini = 0.0\nsamples = 2\nvalue = [5, 0]"] ;
0 -> 12 [labeldistance=2.5, labelangle=-45, headlabel="False"] ;
}