digraph Tree {
node [shape=box, style="rounded", color="black", fontname=helvetica] ;
edge [fontname=helvetica] ;
0 [label="11 <= 0.7\ngini = 0.4\nsamples = 8\nvalue = [12, 4]"] ;
1 [label="13 <= 0.2\ngini = 0.2\nsamples = 7\nvalue = [12, 2]"] ;
0 -> 1 [labeldistance=2.5, labelangle=45, headlabel="True"] ;
2 [label="6 <= 0.3\ngini = 0.3\nsamples = 5\nvalue = [8, 2]"] ;
1 -> 2 ;
3 [label="gini = 0.0\nsamples = 3\nvalue = [7, 0]"] ;
2 -> 3 ;
4 [label="21 <= 0.5\ngini = 0.4\nsamples = 2\nvalue = [1, 2]"] ;
2 -> 4 ;
5 [label="gini = 0.0\nsamples = 1\nvalue = [1, 0]"] ;
4 -> 5 ;
6 [label="gini = 0.0\nsamples = 1\nvalue = [0, 2]"] ;
4 -> 6 ;
7 [label="gini = 0.0\nsamples = 2\nvalue = [4, 0]"] ;
1 -> 7 ;
8 [label="gini = 0.0\nsamples = 1\nvalue = [0, 2]"] ;
0 -> 8 [labeldistance=2.5, labelangle=-45, headlabel="False"] ;
}