digraph Tree {
node [shape=box, style="rounded", color="black", fontname=helvetica] ;
edge [fontname=helvetica] ;
0 [label="12 <= 0.3\ngini = 0.4\nsamples = 11\nvalue = [11, 5]"] ;
1 [label="14 <= 0.5\ngini = 0.5\nsamples = 9\nvalue = [7, 5]"] ;
0 -> 1 [labeldistance=2.5, labelangle=45, headlabel="True"] ;
2 [label="0 <= 1.7\ngini = 0.5\nsamples = 8\nvalue = [5, 5]"] ;
1 -> 2 ;
3 [label="8 <= 0.5\ngini = 0.5\nsamples = 6\nvalue = [3, 5]"] ;
2 -> 3 ;
4 [label="1 <= 0.7\ngini = 0.5\nsamples = 5\nvalue = [3, 3]"] ;
3 -> 4 ;
5 [label="gini = 0.0\nsamples = 3\nvalue = [3, 0]"] ;
4 -> 5 ;
6 [label="gini = 0.0\nsamples = 2\nvalue = [0, 3]"] ;
4 -> 6 ;
7 [label="gini = 0.0\nsamples = 1\nvalue = [0, 2]"] ;
3 -> 7 ;
8 [label="gini = 0.0\nsamples = 2\nvalue = [2, 0]"] ;
2 -> 8 ;
9 [label="gini = 0.0\nsamples = 1\nvalue = [2, 0]"] ;
1 -> 9 ;
10 [label="gini = 0.0\nsamples = 2\nvalue = [4, 0]"] ;
0 -> 10 [labeldistance=2.5, labelangle=-45, headlabel="False"] ;
}