digraph Tree {
node [shape=box, style="rounded", color="black", fontname=helvetica] ;
edge [fontname=helvetica] ;
0 [label="2 <= 5.5\ngini = 0.5\nsamples = 9\nvalue = [9, 7]"] ;
1 [label="23 <= 2.5\ngini = 0.5\nsamples = 8\nvalue = [9, 5]"] ;
0 -> 1 [labeldistance=2.5, labelangle=45, headlabel="True"] ;
2 [label="1 <= 0.3\ngini = 0.2\nsamples = 6\nvalue = [9, 1]"] ;
1 -> 2 ;
3 [label="gini = 0.0\nsamples = 5\nvalue = [9, 0]"] ;
2 -> 3 ;
4 [label="gini = 0.0\nsamples = 1\nvalue = [0, 1]"] ;
2 -> 4 ;
5 [label="gini = 0.0\nsamples = 2\nvalue = [0, 4]"] ;
1 -> 5 ;
6 [label="gini = 0.0\nsamples = 1\nvalue = [0, 2]"] ;
0 -> 6 [labeldistance=2.5, labelangle=-45, headlabel="False"] ;
}