digraph Tree {
node [shape=box, style="rounded", color="black", fontname=helvetica] ;
edge [fontname=helvetica] ;
0 [label="20 <= 0.7\ngini = 0.5\nsamples = 11\nvalue = [9, 7]"] ;
1 [label="22 <= 4.6\ngini = 0.4\nsamples = 10\nvalue = [9, 4]"] ;
0 -> 1 [labeldistance=2.5, labelangle=45, headlabel="True"] ;
2 [label="8 <= 0.8\ngini = 0.5\nsamples = 9\nvalue = [7, 4]"] ;
1 -> 2 ;
3 [label="15 <= 0.7\ngini = 0.4\nsamples = 6\nvalue = [6, 2]"] ;
2 -> 3 ;
4 [label="16 <= 1.2\ngini = 0.4\nsamples = 5\nvalue = [4, 2]"] ;
3 -> 4 ;
5 [label="gini = 0.0\nsamples = 3\nvalue = [3, 0]"] ;
4 -> 5 ;
6 [label="10 <= 4.0\ngini = 0.4\nsamples = 2\nvalue = [1, 2]"] ;
4 -> 6 ;
7 [label="gini = 0.0\nsamples = 1\nvalue = [0, 2]"] ;
6 -> 7 ;
8 [label="gini = 0.0\nsamples = 1\nvalue = [1, 0]"] ;
6 -> 8 ;
9 [label="gini = 0.0\nsamples = 1\nvalue = [2, 0]"] ;
3 -> 9 ;
10 [label="1 <= 1.0\ngini = 0.4\nsamples = 3\nvalue = [1, 2]"] ;
2 -> 10 ;
11 [label="8 <= 3.9\ngini = 0.5\nsamples = 2\nvalue = [1, 1]"] ;
10 -> 11 ;
12 [label="gini = 0.0\nsamples = 1\nvalue = [0, 1]"] ;
11 -> 12 ;
13 [label="gini = 0.0\nsamples = 1\nvalue = [1, 0]"] ;
11 -> 13 ;
14 [label="gini = 0.0\nsamples = 1\nvalue = [0, 1]"] ;
10 -> 14 ;
15 [label="gini = 0.0\nsamples = 1\nvalue = [2, 0]"] ;
1 -> 15 ;
16 [label="gini = 0.0\nsamples = 1\nvalue = [0, 3]"] ;
0 -> 16 [labeldistance=2.5, labelangle=-45, headlabel="False"] ;
}