digraph Tree {
node [shape=box, style="rounded", color="black", fontname=helvetica] ;
edge [fontname=helvetica] ;
0 [label="8 <= 0.3\ngini = 0.2\nsamples = 8\nvalue = [14, 2]"] ;
1 [label="13 <= 0.2\ngini = 0.3\nsamples = 6\nvalue = [9, 2]"] ;
0 -> 1 [labeldistance=2.5, labelangle=45, headlabel="True"] ;
2 [label="21 <= 0.5\ngini = 0.4\nsamples = 2\nvalue = [1, 2]"] ;
1 -> 2 ;
3 [label="gini = 0.0\nsamples = 1\nvalue = [1, 0]"] ;
2 -> 3 ;
4 [label="gini = 0.0\nsamples = 1\nvalue = [0, 2]"] ;
2 -> 4 ;
5 [label="gini = 0.0\nsamples = 4\nvalue = [8, 0]"] ;
1 -> 5 ;
6 [label="gini = 0.0\nsamples = 2\nvalue = [5, 0]"] ;
0 -> 6 [labeldistance=2.5, labelangle=-45, headlabel="False"] ;
}