digraph Tree {
node [shape=box, style="rounded", color="black", fontname=helvetica] ;
edge [fontname=helvetica] ;
0 [label="12 <= 0.3\ngini = 0.4\nsamples = 11\nvalue = [5, 11]"] ;
1 [label="14 <= 0.5\ngini = 0.5\nsamples = 7\nvalue = [5, 5]"] ;
0 -> 1 [labeldistance=2.5, labelangle=45, headlabel="True"] ;
2 [label="0 <= 0.7\ngini = 0.5\nsamples = 6\nvalue = [5, 3]"] ;
1 -> 2 ;
3 [label="gini = 0.0\nsamples = 4\nvalue = [5, 0]"] ;
2 -> 3 ;
4 [label="gini = 0.0\nsamples = 2\nvalue = [0, 3]"] ;
2 -> 4 ;
5 [label="gini = 0.0\nsamples = 1\nvalue = [0, 2]"] ;
1 -> 5 ;
6 [label="gini = 0.0\nsamples = 4\nvalue = [0, 6]"] ;
0 -> 6 [labeldistance=2.5, labelangle=-45, headlabel="False"] ;
}