digraph Tree {
node [shape=box, style="rounded", color="black", fontname=helvetica] ;
edge [fontname=helvetica] ;
0 [label="25 <= 1.3\ngini = 0.5\nsamples = 11\nvalue = [6, 10]"] ;
1 [label="13 <= 0.2\ngini = 0.4\nsamples = 10\nvalue = [4, 10]"] ;
0 -> 1 [labeldistance=2.5, labelangle=45, headlabel="True"] ;
2 [label="9 <= 0.5\ngini = 0.5\nsamples = 7\nvalue = [4, 6]"] ;
1 -> 2 ;
3 [label="4 <= 0.5\ngini = 0.5\nsamples = 6\nvalue = [4, 4]"] ;
2 -> 3 ;
4 [label="20 <= 0.7\ngini = 0.4\nsamples = 5\nvalue = [2, 4]"] ;
3 -> 4 ;
5 [label="3 <= 0.8\ngini = 0.3\nsamples = 4\nvalue = [1, 4]"] ;
4 -> 5 ;
6 [label="12 <= 0.3\ngini = 0.4\nsamples = 3\nvalue = [1, 2]"] ;
5 -> 6 ;
7 [label="gini = 0.0\nsamples = 1\nvalue = [1, 0]"] ;
6 -> 7 ;
8 [label="gini = 0.0\nsamples = 2\nvalue = [0, 2]"] ;
6 -> 8 ;
9 [label="gini = 0.0\nsamples = 1\nvalue = [0, 2]"] ;
5 -> 9 ;
10 [label="gini = 0.0\nsamples = 1\nvalue = [1, 0]"] ;
4 -> 10 ;
11 [label="gini = 0.0\nsamples = 1\nvalue = [2, 0]"] ;
3 -> 11 ;
12 [label="gini = 0.0\nsamples = 1\nvalue = [0, 2]"] ;
2 -> 12 ;
13 [label="gini = 0.0\nsamples = 3\nvalue = [0, 4]"] ;
1 -> 13 ;
14 [label="gini = 0.0\nsamples = 1\nvalue = [2, 0]"] ;
0 -> 14 [labeldistance=2.5, labelangle=-45, headlabel="False"] ;
}