digraph Tree {
node [shape=box, style="rounded", color="black", fontname=helvetica] ;
edge [fontname=helvetica] ;
0 [label="26 <= 1.5\ngini = 0.4\nsamples = 11\nvalue = [4, 12]"] ;
1 [label="4 <= 0.5\ngini = 0.2\nsamples = 10\nvalue = [2, 12]"] ;
0 -> 1 [labeldistance=2.5, labelangle=45, headlabel="True"] ;
2 [label="gini = 0.0\nsamples = 8\nvalue = [0, 10]"] ;
1 -> 2 ;
3 [label="4 <= 2.0\ngini = 0.5\nsamples = 2\nvalue = [2, 2]"] ;
1 -> 3 ;
4 [label="gini = 0.0\nsamples = 1\nvalue = [2, 0]"] ;
3 -> 4 ;
5 [label="gini = 0.0\nsamples = 1\nvalue = [0, 2]"] ;
3 -> 5 ;
6 [label="gini = 0.0\nsamples = 1\nvalue = [2, 0]"] ;
0 -> 6 [labeldistance=2.5, labelangle=-45, headlabel="False"] ;
}