digraph Tree {
node [shape=box, style="rounded", color="black", fontname=helvetica] ;
edge [fontname=helvetica] ;
0 [label="14 <= 0.5\ngini = 0.5\nsamples = 11\nvalue = [8, 8]"] ;
1 [label="10 <= 1.0\ngini = 0.5\nsamples = 10\nvalue = [6, 8]"] ;
0 -> 1 [labeldistance=2.5, labelangle=45, headlabel="True"] ;
2 [label="4 <= 0.5\ngini = 0.5\nsamples = 9\nvalue = [6, 5]"] ;
1 -> 2 ;
3 [label="2 <= 0.5\ngini = 0.5\nsamples = 8\nvalue = [6, 4]"] ;
2 -> 3 ;
4 [label="12 <= 1.0\ngini = 0.5\nsamples = 7\nvalue = [4, 4]"] ;
3 -> 4 ;
5 [label="9 <= 0.5\ngini = 0.5\nsamples = 6\nvalue = [3, 4]"] ;
4 -> 5 ;
6 [label="13 <= 0.6\ngini = 0.4\nsamples = 5\nvalue = [2, 4]"] ;
5 -> 6 ;
7 [label="23 <= 3.7\ngini = 0.5\nsamples = 4\nvalue = [2, 3]"] ;
6 -> 7 ;
8 [label="6 <= 0.3\ngini = 0.4\nsamples = 3\nvalue = [1, 3]"] ;
7 -> 8 ;
9 [label="0 <= 1.7\ngini = 0.4\nsamples = 2\nvalue = [1, 2]"] ;
8 -> 9 ;
10 [label="gini = 0.0\nsamples = 1\nvalue = [0, 2]"] ;
9 -> 10 ;
11 [label="gini = 0.0\nsamples = 1\nvalue = [1, 0]"] ;
9 -> 11 ;
12 [label="gini = 0.0\nsamples = 1\nvalue = [0, 1]"] ;
8 -> 12 ;
13 [label="gini = 0.0\nsamples = 1\nvalue = [1, 0]"] ;
7 -> 13 ;
14 [label="gini = 0.0\nsamples = 1\nvalue = [0, 1]"] ;
6 -> 14 ;
15 [label="gini = 0.0\nsamples = 1\nvalue = [1, 0]"] ;
5 -> 15 ;
16 [label="gini = 0.0\nsamples = 1\nvalue = [1, 0]"] ;
4 -> 16 ;
17 [label="gini = 0.0\nsamples = 1\nvalue = [2, 0]"] ;
3 -> 17 ;
18 [label="gini = 0.0\nsamples = 1\nvalue = [0, 1]"] ;
2 -> 18 ;
19 [label="gini = 0.0\nsamples = 1\nvalue = [0, 3]"] ;
1 -> 19 ;
20 [label="gini = 0.0\nsamples = 1\nvalue = [2, 0]"] ;
0 -> 20 [labeldistance=2.5, labelangle=-45, headlabel="False"] ;
}