digraph Tree {
node [shape=box, style="rounded", color="black", fontname=helvetica] ;
edge [fontname=helvetica] ;
0 [label="11 <= 0.7\ngini = 0.5\nsamples = 9\nvalue = [9, 7]"] ;
1 [label="20 <= 0.7\ngini = 0.4\nsamples = 8\nvalue = [9, 4]"] ;
0 -> 1 [labeldistance=2.5, labelangle=45, headlabel="True"] ;
2 [label="4 <= 0.5\ngini = 0.4\nsamples = 7\nvalue = [9, 3]"] ;
1 -> 2 ;
3 [label="13 <= 0.2\ngini = 0.3\nsamples = 6\nvalue = [9, 2]"] ;
2 -> 3 ;
4 [label="1 <= 1.0\ngini = 0.4\nsamples = 2\nvalue = [1, 2]"] ;
3 -> 4 ;
5 [label="gini = 0.0\nsamples = 1\nvalue = [1, 0]"] ;
4 -> 5 ;
6 [label="gini = 0.0\nsamples = 1\nvalue = [0, 2]"] ;
4 -> 6 ;
7 [label="gini = 0.0\nsamples = 4\nvalue = [8, 0]"] ;
3 -> 7 ;
8 [label="gini = 0.0\nsamples = 1\nvalue = [0, 1]"] ;
2 -> 8 ;
9 [label="gini = 0.0\nsamples = 1\nvalue = [0, 1]"] ;
1 -> 9 ;
10 [label="gini = 0.0\nsamples = 1\nvalue = [0, 3]"] ;
0 -> 10 [labeldistance=2.5, labelangle=-45, headlabel="False"] ;
}