digraph Tree {
node [shape=box, style="rounded", color="black", fontname=helvetica] ;
edge [fontname=helvetica] ;
0 [label="8 <= 0.5\ngini = 0.4\nsamples = 11\nvalue = [11, 5]"] ;
1 [label="0 <= 0.7\ngini = 0.3\nsamples = 9\nvalue = [11, 2]"] ;
0 -> 1 [labeldistance=2.5, labelangle=45, headlabel="True"] ;
2 [label="4 <= 0.5\ngini = 0.2\nsamples = 8\nvalue = [11, 1]"] ;
1 -> 2 ;
3 [label="10 <= 5.0\ngini = 0.2\nsamples = 6\nvalue = [7, 1]"] ;
2 -> 3 ;
4 [label="gini = 0.0\nsamples = 5\nvalue = [7, 0]"] ;
3 -> 4 ;
5 [label="gini = 0.0\nsamples = 1\nvalue = [0, 1]"] ;
3 -> 5 ;
6 [label="gini = 0.0\nsamples = 2\nvalue = [4, 0]"] ;
2 -> 6 ;
7 [label="gini = 0.0\nsamples = 1\nvalue = [0, 1]"] ;
1 -> 7 ;
8 [label="gini = 0.0\nsamples = 2\nvalue = [0, 3]"] ;
0 -> 8 [labeldistance=2.5, labelangle=-45, headlabel="False"] ;
}